prob,val
0,-2.49540851267139
0,-2.49303371583339
0,-2.49200116062417
0,-2.49264717358262
0,-2.49424190673721
0,-2.49478140642872
0,-2.48416576696767
0,-2.48986751219979
0,-2.50076556285134
0,-2.49450979650265
0,-2.48624124942002
0,-2.49678420450843
0,-2.49483954609769
0,-2.49225001929774
0,-2.49856040497485
0,-2.49395839635309
0,-2.49440056693472
0,-2.49217952857407
0,-2.49155513432057
0,-2.48564841676386
0,-2.49381011485973
0,-2.48593990167236
0,-2.50686297825707
0,-2.49706673192529
0,-2.49541863332171
0,-2.48915697145125
0,-2.49440828182719
0,-2.49656100352212
0,-2.49230389541014
0,-2.5001380817909
0,-2.49134428972571
0,-2.49400635928182
0,-2.49777512743928
0,-2.49435674352753
0,-2.48400009749838
0,-2.49090925969803
0,-2.48931531308926
0,-2.49622465365482
0,-2.4911278980965
0,-2.49271543502299
0,-2.49575416001038
0,-2.48843791908162
0,-2.49308253309897
0,-2.49796876004841
0,-2.49932739771571
0,-2.49009074441945
0,-2.49065141406263
0,-2.49001344152581
0,-2.48802157741743
0,-2.49058035597377
0,-2.48889171444713
0,-2.49166572811183
0,-2.49602621584308
0,-2.49238479332774
0,-2.49452706587838
0,-2.49002135424242
0,-2.49147522574355
0,-2.50259837013904
0,-2.48687235369455
0,-2.50089875851936
0,-2.49121069552628
0,-2.49355119604911
0,-2.49623002256248
0,-2.49450008375337
0,-2.49221869557511
0,-2.49382831770754
0,-2.49946722476431
0,-2.49382105450021
0,-2.4895002944715
0,-2.49495158079144
0,-2.49451158877984
0,-2.49018317216544
0,-2.49082509789328
0,-2.49269890657454
0,-2.49713896576953
0,-2.49568215743469
0,-2.48885070155908
0,-2.49036849690286
0,-2.49987256559463
0,-2.49466357239376
0,-2.4891557938489
0,-2.4881557323973
0,-2.49664674563469
0,-2.48781248545891
0,-2.49236284425423
0,-2.49505715440595
0,-2.49028189710937
0,-2.48879076349146
0,-2.49451820521813
0,-2.49066846779096
0,-2.4922601006109
0,-2.49909891576199
0,-2.49587066660829
0,-2.49611803891381
0,-2.48097873764157
0,-2.48966060970064
0,-2.48900739723337
0,-2.49467940417115
0,-2.48950500800242
0,-2.48603035290226
0,-2.49031228871948
0,-2.49770241597913
0,-2.49398837449536
0,-2.48995007911398
0,-2.4892806192442
0,-2.49120269608601
0,-2.49943683139129
0,-2.49984096323904
0,-2.49905159936649
0,-2.4964506806763
0,-2.49341623160568
0,-2.49394858583448
0,-2.48928853286225
0,-2.4940889472047
0,-2.48952950242016
0,-2.48799810249927
0,-2.48567165520138
0,-2.49118275815066
0,-2.49288507973796
0,-2.49912229450038
0,-2.49371950111546
0,-2.49473648133364
0,-2.49514371347464
0,-2.49615605907499
0,-2.49364536192187
0,-2.49317777224996
0,-2.49410520287608
0,-2.50020680976812
0,-2.49135902899805
0,-2.48239010044972
0,-2.49434466217239
0,-2.49287837586566
0,-2.49716660334511
0,-2.48882901085109
0,-2.49322380862938
0,-2.48568837149842
0,-2.49307701928791
0,-2.49452740331945
0,-2.49101906044479
0,-2.49293014160832
0,-2.49312986150285
0,-2.48891455719857
0,-2.48826642511721
0,-2.49410985466371
0,-2.49540851267139
0,-2.49303371583339
0,-2.49200116062417
0,-2.49264717358262
0,-2.49424190673721
0,-2.49478140642872
0,-2.48416576696767
0,-2.48986751219979
0,-2.50076556285134
0,-2.49450979650265
0,-2.48624124942002
0,-2.49678420450843
0,-2.49483954609769
0,-2.49225001929774
0,-2.49856040497485
0,-2.49395839635309
0,-2.49440056693472
0,-2.49217952857407
0,-2.49155513432057
0,-2.48564841676386
0,-2.49381011485973
0,-2.48593990167236
0,-2.50686297825707
0,-2.49706673192529
0,-2.49541863332171
0,-2.48915697145125
0,-2.49440828182719
0,-2.49656100352212
0,-2.49230389541014
0,-2.5001380817909
0,-2.49134428972571
0,-2.49400635928182
0,-2.49777512743928
0,-2.49435674352753
0,-2.48400009749838
0,-2.49090925969803
0,-2.48931531308926
0,-2.49622465365482
0,-2.4911278980965
0,-2.49271543502299
0,-2.49575416001038
0,-2.48843791908162
0,-2.49308253309897
0,-2.49796876004841
0,-2.49932739771571
0,-2.49009074441945
0,-2.49065141406263
0,-2.49001344152581
0,-2.48802157741743
0,-2.49058035597377
0,-2.48889171444713
0,-2.49166572811183
0,-2.49602621584308
0,-2.49238479332774
0,-2.49452706587838
0,-2.49002135424242
0,-2.49147522574355
0,-2.50259837013904
0,-2.48687235369455
0,-2.50089875851936
0,-2.49121069552628
0,-2.49355119604911
0,-2.49623002256248
0,-2.49450008375337
0,-2.49221869557511
0,-2.49382831770754
0,-2.49946722476431
0,-2.49382105450021
0,-2.4895002944715
0,-2.49495158079144
0,-2.49451158877984
0,-2.49018317216544
0,-2.49082509789328
0,-2.49269890657454
0,-2.49713896576953
0,-2.49568215743469
0,-2.48885070155908
0,-2.49036849690286
0,-2.49987256559463
0,-2.49466357239376
0,-2.4891557938489
0,-2.4881557323973
0,-2.49664674563469
0,-2.48781248545891
0,-2.49236284425423
0,-2.49505715440595
0,-2.49028189710937
0,-2.48879076349146
0,-2.49451820521813
0,-2.49066846779096
0,-2.4922601006109
0,-2.49909891576199
0,-2.49587066660829
0,-2.49611803891381
0,-2.48097873764157
0,-2.48966060970064
0,-2.48900739723337
0,-2.49467940417115
0,-2.48950500800242
0,-2.48603035290226
0,-2.49031228871948
0,-2.49770241597913
0,-2.49398837449536
0,-2.48995007911398
0,-2.4892806192442
0,-2.49120269608601
0,-2.49943683139129
0,-2.49984096323904
0,-2.49905159936649
0,-2.4964506806763
0,-2.49341623160568
0,-2.49394858583448
0,-2.48928853286225
0,-2.4940889472047
0,-2.48952950242016
0,-2.48799810249927
0,-2.48567165520138
0,-2.49118275815066
0,-2.49288507973796
0,-2.49912229450038
0,-2.49371950111546
0,-2.49473648133364
0,-2.49514371347464
0,-2.49615605907499
0,-2.49364536192187
0,-2.49317777224996
0,-2.49410520287608
0,-2.50020680976812
0,-2.49135902899805
0,-2.48239010044972
0,-2.49434466217239
0,-2.49287837586566
0,-2.49716660334511
0,-2.48882901085109
0,-2.49322380862938
0,-2.48568837149842
0,-2.49307701928791
0,-2.49452740331945
0,-2.49101906044479
0,-2.49293014160832
0,-2.49312986150285
0,-2.48891455719857
0,-2.48826642511721
0,-2.49410985466371
0.0075,-2.48522639124456
0.0075,-2.36049853070932
0.0075,-2.54340728077843
0.0075,-2.48912990730438
0.0075,-2.51968293873452
0.0075,-2.42229888749027
0.0075,-2.51562459488757
0.0075,-2.4414440159191
0.0075,-2.47660872723478
0.0075,-2.47375572003542
0.0075,-2.45080075035036
0.0075,-2.50554460410691
0.0075,-2.43881540100014
0.0075,-2.52693455035148
0.0075,-2.48969011814621
0.0075,-2.46758885357743
0.0075,-2.53983968787258
0.0075,-2.45754241457
0.0075,-2.53371881044771
0.0075,-2.41586912503656
0.0075,-2.49366448970544
0.0075,-2.53188351277487
0.0075,-2.48690303578206
0.0075,-2.47939589311805
0.0075,-2.43062742890633
0.0075,-2.45102703885195
0.0075,-2.43594066633225
0.0075,-2.44507404506479
0.0075,-2.48665939253015
0.0075,-2.53132313156212
0.0075,-2.5436088106924
0.0075,-2.48775102730637
0.0075,-2.40481748576389
0.0075,-2.56766041707092
0.0075,-2.51409751941968
0.0075,-2.49088316526092
0.0075,-2.39928776232741
0.0075,-2.47421483921123
0.0075,-2.46979939464515
0.0075,-2.44720193731589
0.0075,-2.5255429467536
0.0075,-2.50696147356097
0.0075,-2.46881805278266
0.0075,-2.59891124989742
0.0075,-2.50631723244411
0.0075,-2.47604024691023
0.0075,-2.43478609472191
0.0075,-2.52651410771825
0.0075,-2.55921791471256
0.0075,-2.41173480291455
0.0075,-2.48251517443785
0.0075,-2.47939695285481
0.0075,-2.54341981026486
0.0075,-2.44763860822302
0.0075,-2.51561749998834
0.0075,-2.51153358009459
0.0075,-2.43736829057095
0.0075,-2.50760940869447
0.0075,-2.41779060014316
0.0075,-2.50487223558845
0.0075,-2.55158850009665
0.0075,-2.48207825042584
0.0075,-2.45381396377836
0.0075,-2.44054658993875
0.0075,-2.56430751818767
0.0075,-2.47304325565037
0.0075,-2.54524711952745
0.0075,-2.50368013628427
0.0075,-2.54797146555476
0.0075,-2.45765969909362
0.0075,-2.43565701772731
0.0075,-2.48276718125943
0.0075,-2.49089207389017
0.0075,-2.40589916651915
0.0075,-2.51210216758381
0.0075,-2.54817335105708
0.0075,-2.50525309228522
0.0075,-2.50173372877354
0.0075,-2.53287491634482
0.0075,-2.4199609613248
0.0075,-2.49208481041884
0.0075,-2.47806757280339
0.0075,-2.49429650192143
0.0075,-2.48139095138956
0.0075,-2.46479890040217
0.0075,-2.5489885367148
0.0075,-2.5026574568661
0.0075,-2.55867549250219
0.0075,-2.44614309394402
0.0075,-2.49939658300741
0.0075,-2.51514346883385
0.0075,-2.39337993740663
0.0075,-2.46321332739782
0.0075,-2.48720438051645
0.0075,-2.45180477303256
0.0075,-2.41500382280553
0.0075,-2.4480334855047
0.0075,-2.52915170216254
0.0075,-2.49729388398981
0.0075,-2.54382737164408
0.0075,-2.50266231158293
0.0075,-2.51722369995916
0.0075,-2.52714189444254
0.0075,-2.48234083320633
0.0075,-2.47127794677704
0.0075,-2.53319943847656
0.0075,-2.53894210966942
0.0075,-2.48101488097739
0.0075,-2.41383990094351
0.0075,-2.53304410207676
0.0075,-2.4615129611566
0.0075,-2.49035959322934
0.0075,-2.48132080056602
0.0075,-2.5510787193013
0.0075,-2.44311419299779
0.0075,-2.46158607434666
0.0075,-2.50423296623632
0.0075,-2.4466416395918
0.0075,-2.44098146505846
0.0075,-2.50138548574186
0.0075,-2.51264535524391
0.0075,-2.36882728919354
0.0075,-2.44587019838034
0.0075,-2.4740852803393
0.0075,-2.53271324409428
0.0075,-2.46226151983073
0.0075,-2.49996482292877
0.0075,-2.47871244224074
0.0075,-2.49659576808545
0.0075,-2.47892489236952
0.0075,-2.44759664278478
0.0075,-2.51656250930643
0.0075,-2.525445105463
0.0075,-2.48096144427573
0.0075,-2.51734351378328
0.0075,-2.49150046757882
0.0075,-2.5675434739376
0.0075,-2.48346962057223
0.0075,-2.57801221057725
0.0075,-2.52001780039327
0.0075,-2.51946891533202
0.0075,-2.47466403121442
0.0075,-2.48193878979588
0.0075,-2.47748027348724
0.015,-2.44800664356964
0.015,-2.49743673629939
0.015,-2.5992536071385
0.015,-2.44291543587864
0.015,-2.49504357420044
0.015,-2.51485570115476
0.015,-2.42456674720493
0.015,-2.45023852131717
0.015,-2.23584466880501
0.015,-2.31531489561515
0.015,-2.44630202930498
0.015,-2.39359844813353
0.015,-2.36067360569937
0.015,-2.66363614399063
0.015,-2.55569780362102
0.015,-2.51395386521715
0.015,-2.45313185729497
0.015,-2.4266934287003
0.015,-2.43167200617966
0.015,-2.44488640875286
0.015,-2.54562434967883
0.015,-2.61504090201778
0.015,-2.47143202625748
0.015,-2.71640668515852
0.015,-2.34039155556505
0.015,-2.48313397413044
0.015,-2.30042650380346
0.015,-2.53015078948222
0.015,-2.41759465835671
0.015,-2.68613495772355
0.015,-2.34674096957472
0.015,-2.44071399075788
0.015,-2.34775595961197
0.015,-2.60065445778117
0.015,-2.3353741099989
0.015,-2.5346547721552
0.015,-2.50187713055722
0.015,-2.49551352920523
0.015,-2.43988338599898
0.015,-2.56494708645917
0.015,-2.4743804170723
0.015,-2.57545458151843
0.015,-2.42991716313082
0.015,-2.49470957695771
0.015,-2.73962207881077
0.015,-2.61214218630908
0.015,-2.65533850181463
0.015,-2.39127832617272
0.015,-2.50735349326822
0.015,-2.43632435512203
0.015,-2.47319980545358
0.015,-2.52319865080472
0.015,-2.52551393804771
0.015,-2.47585954183659
0.015,-2.49956368739643
0.015,-2.55895232831976
0.015,-2.66406824207246
0.015,-2.53182628710746
0.015,-2.53314182470974
0.015,-2.37480899684355
0.015,-2.53782176498003
0.015,-2.39673236362245
0.015,-2.48578058281061
0.015,-2.52175661950628
0.015,-2.38869021679529
0.015,-2.56639467070173
0.015,-2.32815242426864
0.015,-2.53368320797083
0.015,-2.46552988724705
0.015,-2.40000554680607
0.015,-2.63074268409764
0.015,-2.49086607128613
0.015,-2.64862605433966
0.015,-2.34649439428373
0.015,-2.61620229338788
0.015,-2.52248101111631
0.015,-2.50022060560726
0.015,-2.61165542238213
0.015,-2.44388346807101
0.015,-2.33532009493727
0.015,-2.28903430125944
0.015,-2.20962440932828
0.015,-2.55545008594295
0.015,-2.34480007172823
0.015,-2.42702909953962
0.015,-2.58010021344228
0.015,-2.66474962467144
0.015,-2.4814259358469
0.015,-2.40603225029184
0.015,-2.44234156575702
0.015,-2.33889976847203
0.015,-2.33806522146436
0.015,-2.49436858367477
0.015,-2.69962155538011
0.015,-2.4660365625399
0.015,-2.76724043604038
0.015,-2.58939234865324
0.015,-2.46765466517483
0.015,-2.32552886480281
0.015,-2.52320001651502
0.015,-2.49823083653298
0.015,-2.63954014503421
0.015,-2.31770896023063
0.015,-2.32693550366043
0.015,-2.34803147846157
0.015,-2.40620708359834
0.015,-2.43712869535335
0.015,-2.50515583144293
0.015,-2.56476174711927
0.015,-2.5617502273693
0.015,-2.37252349236128
0.015,-2.55594508630632
0.015,-2.48918298273085
0.015,-2.63837969552753
0.015,-2.54406435382858
0.015,-2.56921924150659
0.015,-2.70893899471891
0.015,-2.46366498186315
0.015,-2.6599944603787
0.015,-2.48703376871327
0.015,-2.38043757009013
0.015,-2.37106608300632
0.015,-2.48893841071966
0.015,-2.51859739647839
0.015,-2.47847880297699
0.015,-2.50975020321542
0.015,-2.6240237865577
0.015,-2.46549770564526
0.015,-2.56420821417919
0.015,-2.52910476660988
0.015,-2.56158908009639
0.015,-2.35985194094197
0.015,-2.45914926360242
0.015,-2.42362659852749
0.015,-2.47181397767579
0.015,-2.64229616499577
0.015,-2.44655684852024
0.015,-2.43052401791052
0.015,-2.43700555294929
0.015,-2.40583022070589
0.015,-2.60041613489772
0.015,-2.46995398462839
0.015,-2.53567599489722
0.015,-2.51990260321771
0.0225,-2.47901740307614
0.0225,-2.41632108699598
0.0225,-2.59626088729858
0.0225,-2.67929508709482
0.0225,-2.35225986826623
0.0225,-2.29451096937807
0.0225,-2.52215139885797
0.0225,-2.44985887183482
0.0225,-2.32672069947036
0.0225,-2.76017866813523
0.0225,-2.28723641662682
0.0225,-2.31973942603193
0.0225,-2.53080771840532
0.0225,-2.39164761524036
0.0225,-2.60563506930091
0.0225,-2.66729122821438
0.0225,-2.76220838593311
0.0225,-2.59652293048526
0.0225,-2.37922641356196
0.0225,-2.428899131446
0.0225,-2.56709736687064
0.0225,-2.57888734605986
0.0225,-2.72939408834539
0.0225,-2.5192850046579
0.0225,-2.28619628935235
0.0225,-2.75917047689769
0.0225,-2.51576172242524
0.0225,-2.4281908662655
0.0225,-2.6178970072663
0.0225,-2.45103131861471
0.0225,-2.34634957920372
0.0225,-2.45523240973702
0.0225,-2.59478432632314
0.0225,-2.31669505986248
0.0225,-2.31384432257276
0.0225,-2.43381786866738
0.0225,-2.33971396501599
0.0225,-2.48575434455821
0.0225,-2.59237830039141
0.0225,-2.23445782776656
0.0225,-2.67626919927593
0.0225,-2.77491117571301
0.0225,-2.38682177178669
0.0225,-2.19903441674619
0.0225,-2.34495009015485
0.0225,-2.51417127892108
0.0225,-2.67673173484212
0.0225,-2.74578631643903
0.0225,-2.55157512193005
0.0225,-2.55635178049454
0.0225,-2.60964121811451
0.0225,-2.61131869775854
0.0225,-2.72230180217496
0.0225,-2.43028396318093
0.0225,-2.49205145296392
0.0225,-2.5316087919851
0.0225,-2.59055409478426
0.0225,-2.71456354218151
0.0225,-2.51030051943835
0.0225,-2.59406946278721
0.0225,-2.42933004094913
0.0225,-2.41037358915353
0.0225,-2.89625370975439
0.0225,-2.39784305603235
0.0225,-2.59271278153669
0.0225,-2.45632311037551
0.0225,-2.39698111227947
0.0225,-2.66774376427505
0.0225,-2.79277503362589
0.0225,-2.40732809220783
0.0225,-2.4309535886289
0.0225,-2.53066856470757
0.0225,-2.49458780386058
0.0225,-2.5219053313285
0.0225,-2.64270543226129
0.0225,-2.69551138807467
0.0225,-2.47231356844729
0.0225,-2.29901821133523
0.0225,-2.5229934238806
0.0225,-2.63994402678894
0.0225,-2.29660983633698
0.0225,-2.71335609223765
0.0225,-2.32707885482151
0.0225,-2.41530756742706
0.0225,-2.33149632916878
0.0225,-2.29422445842507
0.0225,-2.48002713444781
0.0225,-2.50522334462509
0.0225,-2.61729164162379
0.0225,-2.450778973831
0.0225,-2.15439627237158
0.0225,-2.44472888288879
0.0225,-2.35699935830534
0.0225,-2.58705914280257
0.0225,-2.68793386768631
0.0225,-2.35030870650978
0.0225,-2.54421973361691
0.0225,-2.71960082280607
0.0225,-2.57244094240615
0.0225,-2.19264338783754
0.0225,-2.50873552149983
0.0225,-2.59117055548112
0.0225,-2.24189150737086
0.0225,-2.50590160295454
0.0225,-2.36464789792764
0.0225,-2.70242422345114
0.0225,-2.36030138844325
0.0225,-2.4492078991198
0.0225,-2.33313393211309
0.0225,-2.50415049823239
0.0225,-2.50618991949757
0.0225,-2.40606386300993
0.0225,-2.78341583797517
0.0225,-2.72011220622279
0.0225,-2.43058109004427
0.0225,-2.28416302730427
0.0225,-2.52348213522655
0.0225,-2.52926418224702
0.0225,-2.65405568013216
0.0225,-2.94497830874062
0.0225,-2.49028276689233
0.0225,-2.42477307532679
0.0225,-2.88620668972979
0.0225,-2.68255484560508
0.0225,-2.56434138872971
0.0225,-2.43464330416606
0.0225,-2.58187912443631
0.0225,-2.51386357270842
0.0225,-2.45848652457114
0.0225,-2.78813304826982
0.0225,-2.47360982736641
0.0225,-2.72177302507613
0.0225,-2.60111328391437
0.0225,-2.57575897018853
0.0225,-2.59954649234469
0.0225,-2.28852613598389
0.0225,-2.49877627581859
0.0225,-2.48160421544644
0.0225,-2.63344115660816
0.0225,-2.64419755957497
0.0225,-2.77077379659302
0.0225,-2.55490377927479
0.0225,-2.55945655374239
0.0225,-2.49504531827145
0.03,-2.8301088667503
0.03,-2.42528360010967
0.03,-2.5259433633383
0.03,-2.38318798628032
0.03,-2.58597513065587
0.03,-2.09683886674451
0.03,-2.59772068779288
0.03,-2.02832355512243
0.03,-2.52383586661358
0.03,-2.42619679460574
0.03,-2.84681072839244
0.03,-2.47708082306542
0.03,-2.49529696028579
0.03,-2.4945619378159
0.03,-2.52418849791995
0.03,-2.49834737990774
0.03,-2.50021075717867
0.03,-2.64205580202168
0.03,-2.00343553144076
0.03,-2.30150684345857
0.03,-2.54671790367926
0.03,-2.58368216156736
0.03,-2.44011881269871
0.03,-2.36231019351183
0.03,-2.610339544312
0.03,-2.86205688818805
0.03,-2.52466763798471
0.03,-2.63254446469035
0.03,-2.47970420936148
0.03,-2.32645104475611
0.03,-2.69846370560139
0.03,-2.65753748421768
0.03,-2.6529699033426
0.03,-2.51816729361527
0.03,-3.00687436485568
0.03,-2.45415589984883
0.03,-2.91496640442565
0.03,-2.73502047518632
0.03,-2.83238456553547
0.03,-2.42034318621161
0.03,-2.71981247795415
0.03,-2.46275173769318
0.03,-2.36564440324227
0.03,-2.34257584708405
0.03,-2.54844339182721
0.03,-2.51384423419491
0.03,-2.689799310382
0.03,-2.55313483566727
0.03,-2.53214917779885
0.03,-2.42934076171319
0.03,-2.57744645129497
0.03,-2.39871104602447
0.03,-2.59461868452007
0.03,-2.4284512701525
0.03,-2.42368263173175
0.03,-2.66789474929535
0.03,-2.64723034831528
0.03,-2.57130947453719
0.03,-2.42716597545144
0.03,-2.79527069425929
0.03,-2.19045720296538
0.03,-2.53640490521204
0.03,-2.48423833183148
0.03,-2.35017134058038
0.03,-2.65432360616729
0.03,-2.38076232511191
0.03,-2.53926259621298
0.03,-2.32897606012327
0.03,-2.57913294678634
0.03,-2.66796675990561
0.03,-2.52525739307742
0.03,-2.76658738446598
0.03,-2.69728294943075
0.03,-2.35471863479382
0.03,-2.32771143500523
0.03,-2.50999418238745
0.03,-2.62447566694798
0.03,-2.44909110171764
0.03,-2.61471481956626
0.03,-2.11992960584536
0.03,-2.39091866764973
0.03,-2.55771275775441
0.03,-2.6779593813606
0.03,-2.5633609798113
0.03,-2.4123894200457
0.03,-2.38234646457825
0.03,-2.62666158667781
0.03,-2.39407649122486
0.03,-2.48059099700408
0.03,-2.71819354934743
0.03,-2.37459425586691
0.03,-1.77000215323824
0.03,-2.5258905887422
0.03,-2.58443730802601
0.03,-2.15718505856422
0.03,-2.27373405012352
0.03,-2.45729596995807
0.03,-2.70521247800209
0.03,-2.39567711353049
0.03,-2.48214462846867
0.03,-2.35528678950316
0.03,-2.40414082644083
0.03,-2.73915356716337
0.03,-2.39112787398117
0.03,-2.51744817942235
0.03,-2.52706163250679
0.03,-2.87564462102463
0.03,-2.4761031567676
0.03,-2.87312450445946
0.03,-2.80858418437693
0.03,-2.66948943256528
0.03,-2.40189738497341
0.03,-2.57902213252768
0.03,-2.28890260916944
0.03,-2.59649581349416
0.03,-2.31933853067521
0.03,-2.40163558564107
0.03,-2.4931534198549
0.03,-2.63564104229496
0.03,-2.65930733217727
0.03,-2.54415192830353
0.03,-2.16323509345299
0.03,-2.66995698777875
0.03,-2.01036208388035
0.03,-2.76160160381747
0.03,-2.47693565806416
0.03,-2.63272107473395
0.03,-2.60611836084867
0.03,-2.65731934485743
0.03,-2.40162025639942
0.03,-2.24376702541195
0.03,-2.86502845160674
0.03,-2.08230508161153
0.03,-2.18479525733482
0.03,-2.60646746073403
0.03,-2.34748747448698
0.03,-2.58502099896973
0.03,-2.33326468023552
0.03,-2.567993094308
0.03,-2.59157048500764
0.03,-2.3774622409854
0.03,-2.6368504749797
0.03,-2.54763646780981
0.03,-2.5752236654037
0.0375,-2.30563382369709
0.0375,-2.92226856972359
0.0375,-2.3160975897592
0.0375,-2.31949383371042
0.0375,-2.50180782729426
0.0375,-2.10160418668699
0.0375,-2.95457664636677
0.0375,-2.2162006228383
0.0375,-3.16703024373225
0.0375,-2.72158248282138
0.0375,-2.63221795133082
0.0375,-2.28550464042319
0.0375,-2.27682054992678
0.0375,-2.08368382595203
0.0375,-2.98993390221267
0.0375,-2.69691790360223
0.0375,-2.50354133457087
0.0375,-2.42864625541808
0.0375,-2.5446232085515
0.0375,-2.4055798283899
0.0375,-2.7640365050389
0.0375,-2.4516474764369
0.0375,-2.61079426340553
0.0375,-3.08245247371695
0.0375,-2.21749450687034
0.0375,-2.10564215113727
0.0375,-3.01349909570759
0.0375,-2.35754524089851
0.0375,-2.82180666140656
0.0375,-2.72632545041221
0.0375,-2.46392773306422
0.0375,-2.45619457216158
0.0375,-2.46000743039536
0.0375,-2.67245983506458
0.0375,-2.60362150206288
0.0375,-2.58100492777704
0.0375,-2.62414739903788
0.0375,-2.54445415628519
0.0375,-2.31940349700633
0.0375,-2.44303095553926
0.0375,-2.68373315160115
0.0375,-2.40409331187943
0.0375,-2.49288992178643
0.0375,-2.77455560232449
0.0375,-1.65290720842628
0.0375,-2.81997781457621
0.0375,-2.57018723954112
0.0375,-2.24755233618766
0.0375,-2.92248810165183
0.0375,-2.51624340971266
0.0375,-2.10799813368593
0.0375,-2.19904607182998
0.0375,-2.71111988646512
0.0375,-2.75072492669957
0.0375,-2.9361682697118
0.0375,-3.38298615422165
0.0375,-1.97166027388354
0.0375,-2.67174178974576
0.0375,-2.38149934552689
0.0375,-2.25075525527627
0.0375,-2.59258908880072
0.0375,-2.34887578342981
0.0375,-2.31897560985319
0.0375,-2.68023741250009
0.0375,-2.64907575789558
0.0375,-2.38339699793389
0.0375,-2.47607283493274
0.0375,-1.89367778119858
0.0375,-2.59557548009477
0.0375,-2.33339664477087
0.0375,-2.38966597529377
0.0375,-2.40376601026976
0.0375,-2.06791819466775
0.0375,-2.65072953917823
0.0375,-2.35166955107092
0.0375,-2.42796551254959
0.0375,-2.65063443869303
0.0375,-2.34122762977582
0.0375,-2.84391592039601
0.0375,-2.56389202190476
0.0375,-3.06285754652742
0.0375,-2.7148024933441
0.0375,-2.70517299701707
0.0375,-2.44270304411896
0.0375,-2.33278950560213
0.0375,-2.27406813459221
0.0375,-1.47320078733601
0.0375,-2.66120613783583
0.0375,-2.58742747201254
0.0375,-2.7457739914885
0.0375,-2.47515132309761
0.0375,-2.5373369783316
0.0375,-2.80966063312918
0.0375,-2.63049586554693
0.0375,-2.48870922441432
0.0375,-2.93688887593941
0.0375,-2.07307683688491
0.0375,-2.15125094550642
0.0375,-2.94196950674374
0.0375,-2.75170054590494
0.0375,-2.93827228409651
0.0375,-2.72536061568509
0.0375,-2.01990875646685
0.0375,-2.781776256301
0.0375,-2.39119862821271
0.0375,-2.59759604264948
0.0375,-2.48382796633553
0.0375,-2.46296104221309
0.0375,-2.64501177440674
0.0375,-2.68841569410809
0.0375,-2.13928121564889
0.0375,-2.41232993802211
0.0375,-2.7333781226753
0.0375,-2.12779228037533
0.0375,-2.90772878315428
0.0375,-2.54088363945629
0.0375,-2.72793075868824
0.0375,-2.43438599410965
0.0375,-2.37755694961867
0.0375,-2.82685302978149
0.0375,-2.97651090488331
0.0375,-2.65750863529342
0.0375,-2.21521776751613
0.0375,-2.31363553965478
0.0375,-2.80540349407489
0.0375,-2.71895339167311
0.0375,-2.8722724893484
0.0375,-0.508688502356478
0.0375,-2.2805624186321
0.0375,-3.00804985807743
0.0375,-2.16254515583644
0.0375,-2.41917753122545
0.0375,-2.31510649984722
0.0375,-2.30037631000312
0.0375,-2.07155128409179
0.0375,-2.47121842789163
0.0375,-2.76265760119669
0.0375,-2.34959613723206
0.0375,-2.51610681746111
0.0375,-2.36253448500027
0.0375,-2.55693712667636
0.0375,-2.53666163363995
0.0375,-2.18373789100291
0.0375,-2.45655928192317
0.045,-2.24309520496421
0.045,-2.89462707556712
0.045,-2.77170530369365
0.045,-2.38561060411182
0.045,-2.43702996928429
0.045,-2.62439878680317
0.045,-2.14878399449962
0.045,-3.34482449377979
0.045,-2.78895579463975
0.045,-2.93745706075342
0.045,-0.917998280201435
0.045,-2.96223414928522
0.045,-2.31525385039322
0.045,-2.30988775281661
0.045,-2.49718288854702
0.045,-2.68785242760133
0.045,-2.54722843961384
0.045,-2.67380766616461
0.045,-2.75766557324359
0.045,-2.70266333507667
0.045,-2.31347112747459
0.045,-2.52561147663166
0.045,-3.02573700436567
0.045,-2.91336577801735
0.045,-2.57597008912992
0.045,-3.61580072774238
0.045,-2.61427275307459
0.045,-2.59666591252118
0.045,-3.16101451923996
0.045,-2.65975840411219
0.045,-2.15242736653408
0.045,-2.39604034632424
0.045,-2.74633125114507
0.045,-2.33437941500999
0.045,-2.17333398952654
0.045,-2.89947470477163
0.045,-2.43901915988193
0.045,-2.40706441840997
0.045,-2.49160329397184
0.045,-3.2649225277209
0.045,-2.65562630054291
0.045,-2.85787714953778
0.045,-2.41200310538228
0.045,-1.35415713594318
0.045,-2.52481114200665
0.045,-2.88644444128569
0.045,-2.38517037481528
0.045,-2.49120902637785
0.045,-2.21208716140478
0.045,-2.24358008662171
0.045,-2.7340782040131
0.045,-3.01582021199447
0.045,-2.91248052864915
0.045,-2.73810053989505
0.045,-2.6532217530172
0.045,-2.22895887644263
0.045,-2.69918356628846
0.045,-2.56989832520684
0.045,-2.72594437008629
0.045,-2.29477312937688
0.045,-2.68632909071313
0.045,-2.30815718077338
0.045,-2.25436466818075
0.045,-2.96811627344213
0.045,-2.6166685011404
0.045,-2.71531053508721
0.045,-3.00754148754549
0.045,-2.16165856031227
0.045,-2.62253063404893
0.045,-2.39062084238954
0.045,-2.98643296462953
0.045,-2.41366419780948
0.045,-2.36657993375894
0.045,-2.83088632784605
0.045,-3.06786982148861
0.045,-2.62914231316564
0.045,-2.51371097387658
0.045,-2.60574069149989
0.045,-2.4166879398816
0.045,-3.45882590444442
0.045,-2.70424570762919
0.045,-3.0830806332871
0.045,-3.99216177375276
0.045,-3.20194703795116
0.045,-2.71836634996606
0.045,-2.07052384794217
0.045,-2.60341714849663
0.045,-2.3363336905147
0.045,-2.42917507930064
0.045,-2.19301523511093
0.045,-2.74687148285751
0.045,-2.84889148832619
0.045,-2.53946087882913
0.045,-2.60941797843987
0.045,-2.95596806194497
0.045,-2.97298872975298
0.045,-2.39996459286801
0.045,-3.16790770068819
0.045,-2.88805922035149
0.045,-2.82171222010755
0.045,-2.82309510252209
0.045,-2.66549063775157
0.045,-2.0649847133643
0.045,-2.33684699536987
0.045,-2.59716007359257
0.045,-2.03877205125841
0.045,-2.3758780523074
0.045,-3.11687717601184
0.045,-2.68281410967266
0.045,-2.63890248715019
0.045,-2.77273553533095
0.045,-2.78682840060707
0.045,-1.64161759004284
0.045,-2.97207646688204
0.045,-3.01596967319468
0.045,-3.474665758858
0.045,-2.50648601102238
0.045,-2.91864284621493
0.045,-2.21640533412189
0.045,-2.77240403179171
0.045,-2.3983987128793
0.045,-2.57363911919245
0.045,-2.72902279064723
0.045,-2.93032021240738
0.045,-2.69691680335948
0.045,-2.25368210677739
0.045,-2.36019029897335
0.045,-2.2378370708598
0.045,-1.9757026205133
0.045,-2.7928674456555
0.045,-2.48164029461126
0.045,-2.26601329135915
0.045,-2.50749434242479
0.045,-2.34952169535853
0.045,-2.40338914783229
0.045,-2.60809690872472
0.045,-3.15575486244296
0.045,-2.52228115471913
0.045,-3.29720387965107
0.045,-2.13350717009175
0.045,-2.80167351690354
0.045,-2.27650248162234
0.045,-2.6066287510814
0.045,-2.89824153570497
0.0525,-2.54951792985569
0.0525,-2.60717416280568
0.0525,-2.74652488483136
0.0525,-2.79585274718999
0.0525,-3.22931834499384
0.0525,-2.75428116819655
0.0525,-2.8325408990336
0.0525,-2.17995795166007
0.0525,2.83315215610657
0.0525,-2.55203634159825
0.0525,-1.77153750412431
0.0525,-2.7663456787359
0.0525,-3.72071620565305
0.0525,-2.5953795699576
0.0525,-2.57518377950196
0.0525,-3.52851565703517
0.0525,-2.66851706589859
0.0525,-2.97121193069386
0.0525,-2.69867634873914
0.0525,-2.78349378323842
0.0525,-2.50486589156995
0.0525,-3.40478699377179
0.0525,-2.58421277510274
0.0525,-2.34854232571502
0.0525,-2.22125390125806
0.0525,-0.315511037154185
0.0525,-2.9580369672823
0.0525,-3.1214408768454
0.0525,-3.12474082520852
0.0525,-2.9984783344431
0.0525,-2.80336380164081
0.0525,-2.75635160349668
0.0525,-2.64118723832733
0.0525,-2.71365798270651
0.0525,-2.16723913963878
0.0525,-2.77056458920804
0.0525,-2.37170401532889
0.0525,-2.35881680579702
0.0525,-2.60522068353496
0.0525,-2.1465247396962
0.0525,-2.81364121727481
0.0525,-1.80432003301606
0.0525,-2.33233565326611
0.0525,-2.42321783714994
0.0525,-2.26577031921225
0.0525,-3.02887795486696
0.0525,-2.24103366981225
0.0525,-2.19303470499358
0.0525,-3.08460622797888
0.0525,-1.66166658679485
0.0525,-2.87499483799979
0.0525,-3.05777973684018
0.0525,-3.13171207637067
0.0525,-2.99294818847595
0.0525,-2.78576090810201
0.0525,-2.89646043323802
0.0525,-2.5786881239867
0.0525,-2.22635917047926
0.0525,-2.94041811681273
0.0525,-2.75300328137256
0.0525,-2.34607745939776
0.0525,-2.22416229023669
0.0525,-2.77174140905054
0.0525,-2.44900582042936
0.0525,-2.73469684006305
0.0525,-2.71721811563878
0.0525,-2.30190409246067
0.0525,-3.2084517188053
0.0525,-2.53815839921749
0.0525,-2.57364996170043
0.0525,-2.50405660655157
0.0525,-2.45246930242761
0.0525,-3.22428098946316
0.0525,-3.05462914843691
0.0525,-3.07324689660586
0.0525,-2.91368478057178
0.0525,-1.80349238276612
0.0525,-2.69974906243536
0.0525,-3.47223747504345
0.0525,-2.19334070639717
0.0525,-5.12362419435201
0.0525,-2.5300243510168
0.0525,-2.80411374937797
0.0525,-3.08023051556171
0.0525,-3.66225207914259
0.0525,-2.25032577288536
0.0525,-3.02485488512888
0.0525,-3.56081085874735
0.0525,-2.42830986527704
0.0525,-2.95380047699426
0.0525,-2.69427099406953
0.0525,-2.46904256176761
0.0525,-2.93816955824572
0.0525,-3.71093019100312
0.0525,-2.74436516712264
0.0525,-2.82909348373229
0.0525,-2.20195093960031
0.0525,-4.2942412181017
0.0525,-3.1408395342284
0.0525,-3.31822603055912
0.0525,-2.82562847563806
0.0525,-2.76998920444787
0.0525,-2.51877997138917
0.0525,-2.89393557590676
0.0525,-1.44402320847765
0.0525,-2.98380610891638
0.0525,-2.31941791767735
0.0525,-2.90071996461984
0.0525,-2.37074012179628
0.0525,-2.49541945180493
0.0525,-2.91481473308839
0.0525,-2.71690099990505
0.0525,-2.8240742723606
0.0525,-1.8180024119087
0.0525,-2.10222333600068
0.0525,-2.01338698077188
0.0525,-2.72817788529661
0.0525,-2.93168433411171
0.0525,-2.4216244789919
0.0525,-4.17949536697675
0.0525,-2.65661486375349
0.0525,-2.7498674488615
0.0525,-2.91914706717441
0.0525,-3.00599114828634
0.0525,-2.94397807493891
0.0525,-2.38908392136101
0.0525,-2.77033569380709
0.0525,-2.68998354955057
0.0525,-3.12593317907745
0.0525,-2.24418077095463
0.0525,-2.34606672077634
0.0525,-2.32622777459531
0.0525,-2.28384776084321
0.0525,-2.12102349215161
0.0525,-2.72216200784355
0.0525,-2.2950385137569
0.0525,-2.65440788736161
0.0525,-2.86247394917174
0.0525,-2.37469386411275
0.0525,-2.83621912387642
0.0525,-2.84601414361403
0.0525,-2.64698287263376
0.0525,-2.61511483616835
0.0525,-2.49331797862113
0.06,-3.02956479201197
0.06,-2.43825867175307
0.06,-2.18822109634056
0.06,-2.93365241576997
0.06,-2.52559021621536
0.06,-3.39682649300388
0.06,-2.52652162213661
0.06,-2.77725913570729
0.06,NaN
0.06,-2.6769046493417
0.06,-2.700332253597
0.06,-2.80948914091306
0.06,-2.91686384021976
0.06,-2.89687906334142
0.06,-2.88939979477679
0.06,-2.34793525054584
0.06,-0.965213801730686
0.06,-2.38017348475354
0.06,-3.01186095470836
0.06,-2.82158858699715
0.06,-2.62429270468661
0.06,-2.64613631899713
0.06,-2.61552746086935
0.06,-3.01069760480772
0.06,-2.71520576382796
0.06,-2.30413521184746
0.06,-2.57573624016083
0.06,-2.6402876949502
0.06,-3.46643046704131
0.06,-2.77093566868115
0.06,-2.88523565070998
0.06,-2.87880357880454
0.06,-2.96277460256937
0.06,-2.92979148195212
0.06,-2.2130867631994
0.06,-2.38879435823628
0.06,-2.40906264228717
0.06,-2.79261491611929
0.06,-2.54556980579436
0.06,0.888192067450302
0.06,-2.21585399467621
0.06,-2.44634558669425
0.06,-2.7798005267384
0.06,-3.69553877230913
0.06,-2.45983198649341
0.06,-3.33696103256285
0.06,-3.34192858308389
0.06,-1.51307305227682
0.06,-2.29764667645374
0.06,-3.340664310599
0.06,-2.73690102522509
0.06,-2.7943284848263
0.06,-3.05649872620193
0.06,-2.2888986656757
0.06,-2.26518200167873
0.06,-2.46849290168866
0.06,-3.07333867565605
0.06,-2.77559527466672
0.06,-2.98838030947891
0.06,-2.38239580728896
0.06,-2.34334584173232
0.06,-2.87649330061818
0.06,-2.0570389974606
0.06,-2.57012304232291
0.06,-2.44258118190284
0.06,-2.24593213646336
0.06,-2.80522677906498
0.06,-3.15726208504473
0.06,-2.81870465890558
0.06,2.4660609103531
0.06,-3.67267483212029
0.06,-2.85392377958375
0.06,-2.86313124470507
0.06,2.29746849952974
0.06,-2.29360375288218
0.06,-2.98132885935863
0.06,-1.89511415022845
0.06,-2.83210293327658
0.06,-2.88850961505591
0.06,-2.53815527916278
0.06,NaN
0.06,-3.10649596516656
0.06,-2.83031343567948
0.06,-3.14550943320142
0.06,-2.74187189314223
0.06,-3.1578746481067
0.06,-2.90028646692956
0.06,-2.28237130770879
0.06,-2.38473710864169
0.06,-2.57742848936309
0.06,-3.01712959229725
0.06,-2.4335283797936
0.06,-3.01108444802382
0.06,-2.54461957158482
0.06,-2.61449405810147
0.06,-1.39476887223675
0.06,-1.93879106065606
0.06,-1.85637191781327
0.06,-2.45362043720972
0.06,-2.44430537951459
0.06,-3.52179160255137
0.06,-2.79724219308844
0.06,-2.58800881881604
0.06,-2.59519524588318
0.06,-3.03642369077192
0.06,-2.70334468477094
0.06,-2.38616573231356
0.06,-2.85859259098193
0.06,-2.83889297415703
0.06,-2.9769083866168
0.06,-3.15546002225968
0.06,-3.95886846558332
0.06,-2.13358863846211
0.06,-2.92245115605025
0.06,-2.35046928270565
0.06,-3.45691753010104
0.06,-2.37638435201071
0.06,-2.76311014692369
0.06,-3.02779433993668
0.06,-2.21536286626552
0.06,-2.43431145601235
0.06,-3.45698915920096
0.06,-2.76783104173502
0.06,-2.34068685767772
0.06,-3.57999301352481
0.06,-2.26148225771072
0.06,-2.04870737372773
0.06,-2.26171513969644
0.06,-2.77766003390146
0.06,-2.73668355430326
0.06,-3.07633021076485
0.06,-2.47154215148231
0.06,-2.77916920666563
0.06,-2.4980408688943
0.06,-2.75248374235133
0.06,-2.75477026106015
0.06,-2.76444789205718
0.06,-2.84111116844847
0.06,-2.50990085117627
0.06,-2.91170128808923
0.06,-2.8507483945503
0.06,-2.44107496354063
0.06,2.13208701234146
0.06,-2.72682236341372
0.0675,-0.914619060209214
0.0675,-3.01483468797562
0.0675,-3.07157853423679
0.0675,-2.54565876122878
0.0675,-3.18969649326433
0.0675,-2.26947958021582
0.0675,-1.82505380311181
0.0675,-2.3591408640698
0.0675,-3.26500164530207
0.0675,-2.60184342233659
0.0675,-2.45751700609252
0.0675,-1.37192083519245
0.0675,-3.19613523828648
0.0675,-2.95780861860922
0.0675,-3.10788223544718
0.0675,-2.77796331831086
0.0675,-2.66888043924907
0.0675,-2.20598689188042
0.0675,-3.86183386834852
0.0675,-3.5654007779392
0.0675,-2.20371719252445
0.0675,-3.19043842315504
0.0675,-3.24527377865027
0.0675,-3.61477399777413
0.0675,-2.54877539848034
0.0675,-2.68939062169665
0.0675,-0.573172873526742
0.0675,-2.02572446991484
0.0675,-2.71762916377239
0.0675,NaN
0.0675,-2.66816281166706
0.0675,-3.15673765299683
0.0675,-2.62515726934886
0.0675,-2.35577156595524
0.0675,-2.15117374439118
0.0675,-3.10877218518669
0.0675,-2.57661962228796
0.0675,-1.55470691463882
0.0675,-2.88737237471869
0.0675,-3.06239943107476
0.0675,-2.59665318468631
0.0675,-2.2383229709731
0.0675,1.62747746707337
0.0675,-2.93925690687598
0.0675,-2.17797071969127
0.0675,-2.2156008815823
0.0675,-0.606675492142486
0.0675,-2.30550576538007
0.0675,-2.34679806840553
0.0675,-2.70408190565787
0.0675,-2.9301151905755
0.0675,-1.90402513861279
0.0675,-2.57875414509095
0.0675,-2.05331589898428
0.0675,-3.06689475746814
0.0675,-3.23520264092847
0.0675,-2.38723818158826
0.0675,-3.02573131020648
0.0675,-2.34963034332804
0.0675,-0.674970848314603
0.0675,-1.98718831391608
0.0675,-2.96831436772336
0.0675,-3.0233690044221
0.0675,-2.08420323897063
0.0675,-2.8143494417739
0.0675,-2.53815777768279
0.0675,-4.52187102902995
0.0675,-2.47568683429728
0.0675,-11.1511451848568
0.0675,-2.56017447565958
0.0675,-2
0.0675,-2.90591193335922
0.0675,-3.27410549684826
0.0675,-3.13296903810832
0.0675,-3.2167844961135
0.0675,-2.21087736938057
0.0675,-2.88162052514084
0.0675,-2.28247540178763
0.0675,-1.81613776462276
0.0675,0.0256719156340422
0.0675,-3.18314321213426
0.0675,-2.52296049748127
0.0675,-2.82721957200724
0.0675,-2.01230562560629
0.0675,-3.28354781140353
0.0675,-2.81278635146287
0.0675,-3.24936211076189
0.0675,-2.14575501621286
0.0675,-1.24717492628572
0.0675,-2.53106854121566
0.0675,-3.38660218208556
0.0675,-3.50214038844511
0.0675,-1.82435515167458
0.0675,-3.7248881456255
0.0675,-2.65911704592294
0.0675,-0.976553124871625
0.0675,-2.54921748943498
0.0675,-2.62933142336801
0.0675,-2.93544775636859
0.0675,-1.37029097513204
0.0675,-1.8157523546863
0.0675,-7.87312553684653
0.0675,-2.74900809703031
0.0675,-3.2578713111289
0.0675,-2.49955472787601
0.0675,-2.59697638217394
0.0675,-2.15067311354
0.0675,-2.90155804306804
0.0675,-3.16265141217203
0.0675,-2.38220340451776
0.0675,-2.77837246918001
0.0675,-0.232034900953647
0.0675,-2.76504056993381
0.0675,-2.34721365824352
0.0675,-4.1930422424964
0.0675,-3.59341222449612
0.0675,-2.18329346846357
0.0675,-1.97750684315924
0.0675,-3.4254428094862
0.0675,-2.26122284615908
0.0675,-2.68672203542956
0.0675,-2.00912762136526
0.0675,-2.72737277168533
0.0675,-2.71429523734316
0.0675,-2.58216268393563
0.0675,-2.23747684223748
0.0675,-3.02119747303454
0.0675,-3.01441664862046
0.0675,-2.61100531380334
0.0675,-3.03845862186011
0.0675,-2.91887110753135
0.0675,-2.98227520512059
0.0675,-2
0.0675,2.25500366756516
0.0675,-2.51883650453842
0.0675,-2.14971333949486
0.0675,-2.71320782465751
0.0675,-2.79053589961294
0.0675,0.652950818619788
0.0675,-2.68695549107265
0.0675,NaN
0.0675,-2.47569728534486
0.0675,-2
0.0675,-2.85570772745186
0.075,-2.98701994754999
0.075,-1.99216102119987
0.075,-2.21024763739527
0.075,-1.97115242846118
0.075,-2.06681108506972
0.075,-3.54857001392439
0.075,-3.06121216990597
0.075,-3.31823795815913
0.075,-2.14349678540498
0.075,-2.72256523783313
0.075,-3.24677452477214
0.075,-5.61602778564843
0.075,-3.32519057793562
0.075,-3.6131665286953
0.075,-2.96241046419306
0.075,-3.48980614899544
0.075,-2.92609388317383
0.075,-2
0.075,-4.35696129824558
0.075,-2.54513646654373
0.075,-3.0148462636961
0.075,-4.01926551149503
0.075,-2.32161585966442
0.075,-3.38727973469006
0.075,-2.3343985885127
0.075,-2.29894235241078
0.075,-2
0.075,-2.82936750783355
0.075,-3.53822777366766
0.075,-2.6215704598078
0.075,-2.26559633713162
0.075,-3.95985301935741
0.075,-2.33043327552339
0.075,-2.08166593613973
0.075,-2.72352760952718
0.075,-3.0807117095688
0.075,-3.73445715049975
0.075,-2.82098309245209
0.075,-2.00350416602475
0.075,-1.8800804680294
0.075,-2.14210735372794
0.075,-3.06319323469897
0.075,-2.98809089606282
0.075,-3.969018329675
0.075,-2
0.075,-3.82537214044254
0.075,-3.41192034287283
0.075,-2.97445782289922
0.075,0.62073285750055
0.075,-2.30436301502379
0.075,-3.32267118071613
0.075,-2.56219131023351
0.075,-1.99927618977605
0.075,-2.84608740545339
0.075,-2.76089764944047
0.075,-3.19036821788662
0.075,-2.34198814685047
0.075,-3.13051281637557
0.075,-3.47070216959286
0.075,-3.27078016902387
0.075,-0.149127012335104
0.075,-2.9790141098045
0.075,-4.01165958496264
0.075,-0.889296843856834
0.075,-2.70922008759961
0.075,-2.68062992686955
0.075,-1.91401565568692
0.075,-2.08648903558539
0.075,-2.49071244592081
0.075,-3.74094042536696
0.075,-2.41966802458775
0.075,-3.38935106097781
0.075,-3.09832604607683
0.075,-2.183634005286
0.075,-2.73693088231586
0.075,-3.67411029905385
0.075,-2.45978628394674
0.075,-2.87451029741782
0.075,-3.24097514756469
0.075,-3.56888662605191
0.075,-2.11572082586021
0.075,-2.77965067765252
0.075,-3.06661321057899
0.075,3.93394412861967
0.075,NaN
0.075,-3.31878294927639
0.075,-2.90028641918481
0.075,-3.16996424541846
0.075,-2.5049776641246
0.075,-2
0.075,-2.61849974491616
0.075,-3.07245640911304
0.075,-2.84057375505875
0.075,0.217341337154857
0.075,-2.24948978448023
0.075,1.26567922480702
0.075,-1.89379043888151
0.075,-2.29583635907719
0.075,-1.95287707806531
0.075,-2.73115600472257
0.075,-3.49607586470877
0.075,-2.4048530972736
0.075,-2.426008245527
0.075,1.36057426493629
0.075,-2.29953432362438
0.075,-2.0513675064384
0.075,-2.20621387069177
0.075,-1.88419335372887
0.075,NaN
0.075,-2.77773152469717
0.075,-2
0.075,-1.87625428345101
0.075,-2.02162063585251
0.075,-3.06264181963157
0.075,-2.87351139144781
0.075,-3.2364919163432
0.075,-1.88355309402603
0.075,1.91571332264926
0.075,-3.16688277660218
0.075,2.13372575835701
0.075,-3.55169340461128
0.075,-2.53081769703201
0.075,-0.955563856907128
0.075,-2.13115679184068
0.075,-2.90836278812756
0.075,-2.69098908944274
0.075,-1.42856794062106
0.075,-2.87536569935267
0.075,-2.86382177480633
0.075,-3.41207830853086
0.075,-2.99373213121295
0.075,-2.64490124657748
0.075,-3.11318957128417
0.075,-3.0766472253419
0.075,-3.49580817490362
0.075,-2.62541289935542
0.075,-2.77920676805454
0.075,-2.45758656852873
0.075,NaN
0.075,-2.03232160172021
0.075,-2.42954014500835
0.075,-1.85149950536509
0.075,-2.30849447779293
0.075,-3.04685843112545
